{"config": {"vocab": 16, "hidden": 8, "n_layers": 2, "n_heads": 4, "n_kv_heads": 2, "head_dim": 2, "ffn_hidden": 16, "rope_base": 10000.0, "rms_eps": 1e-05, "seq_len": 5}, "inputs": {"ids": {"shape": [2, 5], "dtype": "i32", "data": [10, 8, 9, 3, 8, 8, 0, 5, 13, 3]}}, "weights": {"embed": {"shape": [16, 8], "data": [0.6287151575088501, 1.266487717628479, -0.3397901654243469, 0.22252526879310608, 0.3169765770435333, 1.1059221029281616, 0.26150116324424744, 0.9311244487762451, -0.8967414498329163, -1.268777847290039, -0.45739057660102844, 0.9884512424468994, -0.10452443361282349, 0.08430249989032745, 0.5637630224227905, 2.2565572261810303, 0.7603904008865356, -0.03364326059818268, -0.34484532475471497, 0.4936535656452179, -0.07758074998855591, -1.8053644895553589, -0.47603094577789307, -0.2929125428199768, 0.33842819929122925, 1.35275399684906, 0.3736353814601898, 0.013416479341685772, 0.7736731767654419, -0.10924351960420609, -0.2712145745754242, 0.1416284739971161, 0.07189109176397324, -0.18447619676589966, -1.515884518623352, 0.912517249584198, 0.2538870871067047, -0.6923636198043823, -0.4554239511489868, 2.2124183177948, -1.0799609422683716, 0.5916217565536499, 0.7242393493652344, -0.3491773307323456, -0.5289880037307739, -0.6894744634628296, 0.9577804207801819, -1.2890100479125977, -1.578063726425171, 0.5071300864219666, 0.20301233232021332, -0.20442277193069458, -0.412137895822525, 0.6873754262924194, -0.07520250231027603, -0.42329928278923035, -0.1214367225766182, 0.6263991594314575, -1.9540929794311523, -1.221632480621338, -0.33041828870773315, -0.4243015944957733, 0.5124644041061401, -0.01984540745615959, 1.7302472591400146, -1.4712682962417603, 1.140102744102478, 2.0604937076568604, -0.4350001811981201, 1.7746350765228271, 0.18704281747341156, -0.18132281303405762, 0.54664146900177, -0.2644413411617279, -0.5871643424034119, 0.8711020350456238, -1.309337854385376, 0.686674952507019, 0.32896682620048523, 0.3323023319244385, -0.6232017278671265, -0.011155106127262115, -0.3531348705291748, -0.838797926902771, -1.2328641414642334, -0.6805960536003113, -0.4963502287864685, -0.6015765070915222, 0.5617029666900635, 1.4444133043289185, -0.20898444950580597, -3.1116747856140137, -0.42600950598716736, 1.3343091011047363, -0.32816049456596375, 1.621635913848877, 0.44629180431365967, 0.7688117027282715, 1.5659347772598267, 0.5320292711257935, -1.4387000799179077, 1.6551365852355957, -0.3815121650695801, 0.5052343606948853, 0.7771251201629639, 0.4042048156261444, -0.8635967969894409, -0.20782116055488586, 0.6749412417411804, -0.32824742794036865, -0.4709088206291199, 0.030181938782334328, 0.2841276526451111, -0.7730647325515747, 0.0004431841371115297, -0.5773503184318542, 1.0048154592514038, -0.9464842081069946, -0.12634651362895966, 0.3113599419593811, -0.078432597219944, -0.026398412883281708, -0.05017269775271416, 0.5456939339637756, 1.0036532878875732, -0.6679117679595947, -1.0138646364212036, -1.1900103092193604]}, "final_norm": {"shape": [8], "data": [0.06649457663297653, 1.215402364730835, -1.4606719017028809, -0.6089642643928528, -0.5030187368392944, -0.49067240953445435, -0.4022165834903717, 0.20369952917099]}, "layer0_attn_norm": {"shape": [8], "data": [0.04774469509720802, 0.5596679449081421, 0.6251721382141113, 1.2583329677581787, 2.5991251468658447, -0.3040383458137512, 0.77995765209198, 1.122883915901184]}, "layer0_Wq": {"shape": [8, 8], "data": [-1.5128475427627563, 0.0035125918220728636, 1.7882674932479858, 1.2003782987594604, -0.10646245628595352, -0.7082407474517822, -0.45668238401412964, -0.8640378713607788, -1.8077893257141113, -0.3862932622432709, 0.9918352961540222, 0.12247885018587112, -1.399812936782837, 0.5152501463890076, 0.02120276726782322, 0.9170118570327759, 0.5901632905006409, 0.009179799817502499, 0.2581692636013031, -1.3963111639022827, 1.1873140335083008, 1.554452657699585, -0.6555156111717224, -1.7448302507400513, -1.0208581686019897, 1.321792483329773, -0.10638349503278732, -0.5974740386009216, -0.4578120708465576, -0.4569232165813446, -0.35192355513572693, -0.9714972376823425, -0.6159530878067017, 0.21589018404483795, -0.29333212971687317, -0.8725495338439941, -0.4044339060783386, 0.5561327934265137, 0.3362199068069458, 0.5766449570655823, -1.326005220413208, -1.842628836631775, -0.05254584923386574, -0.7984793782234192, 2.7276034355163574, -0.09288197755813599, 0.6162329316139221, -1.1290205717086792, 0.9192356467247009, 1.2385942935943604, 2.390803813934326, -0.5403638482093811, 1.144025206565857, 0.38121655583381653, -1.841733455657959, -0.5090408325195312, 1.4514744281768799, 1.9962282180786133, -0.20385582745075226, -0.7219181656837463, 1.6073429584503174, 0.3807486295700073, -0.6203134655952454, 0.40963563323020935]}, "layer0_Wk": {"shape": [8, 4], "data": [-0.943638026714325, -0.9895361661911011, 0.36734262108802795, 0.2780086100101471, -1.210781216621399, 1.3639863729476929, 1.3565850257873535, 1.1339643001556396, 1.0485483407974243, -1.5466477870941162, -0.5215729475021362, 0.12933681905269623, 0.3711758852005005, -1.3127496242523193, -1.1927297115325928, -0.2682269513607025, 1.4244440793991089, -3.0016984939575195, -0.06986608356237411, 0.5773621797561646, -0.9582129716873169, 0.8553114533424377, -0.7520889043807983, -1.785272479057312, 0.5772750973701477, 1.0630977153778076, -0.16845592856407166, -1.21348237991333, -0.8823569416999817, -1.7305914163589478, 1.1246477365493774, 0.4949973225593567]}, "layer0_Wv": {"shape": [8, 4], "data": [0.4821431338787079, 0.6687527894973755, 0.4259638786315918, 0.17134132981300354, -0.46279391646385193, 0.3105492889881134, -2.2754509449005127, 2.133171319961548, -2.592841863632202, 1.7713617086410522, 1.9045155048370361, 0.3295246660709381, -1.0702062845230103, -0.19745592772960663, 0.9885163307189941, 0.3907908797264099, -0.0998777523636818, 1.0255547761917114, 0.2581070363521576, 1.6606390476226807, -1.3561089038848877, -0.6418750882148743, 0.12392538785934448, -0.9711182117462158, 0.9898830652236938, 0.7696626782417297, 1.19892418384552, 0.4432917535305023, -0.5011422038078308, 0.7010022401809692, 0.5485054850578308, -0.636824905872345]}, "layer0_Wo": {"shape": [8, 8], "data": [-0.916517972946167, -0.4506795108318329, 0.9265261888504028, -0.18329255282878876, 1.0038331747055054, -0.5095663666725159, 2.1518847942352295, 1.4420417547225952, 0.6362379193305969, -0.38484033942222595, 1.2910596132278442, 0.018179023638367653, -0.4606532156467438, 2.004408597946167, 0.44672203063964844, -0.9133700132369995, -0.9750005006790161, 1.175167202949524, -0.3444680869579315, 0.4556904137134552, -1.0078446865081787, 0.2537651062011719, -0.11501234024763107, -0.8302777409553528, 1.2171114683151245, 1.539404273033142, 0.8398767709732056, 0.6924250721931458, -0.22438165545463562, -0.893150806427002, -1.2874350547790527, -0.5366588830947876, 0.4335218369960785, 0.8034189343452454, 0.8847619891166687, -0.549278736114502, -1.3183799982070923, -0.7387852072715759, -2.313648223876953, 1.0428459644317627, 0.30838626623153687, 0.7169821262359619, -0.6830864548683167, 1.9426020383834839, -0.16017363965511322, -1.6434720754623413, 0.22252140939235687, 0.2656087577342987, 0.9529030919075012, 0.536859929561615, 0.407338947057724, 0.33571532368659973, -1.2594910860061646, 0.12029454857110977, -0.815799355506897, -0.06137847900390625, -0.4422812759876251, -1.2475775480270386, 0.6967154741287231, 1.1913495063781738, -0.41946426033973694, 1.5378695726394653, 0.002983598504215479, 2.427172899246216]}, "layer0_ffn_norm": {"shape": [8], "data": [-0.6382090449333191, 1.6371686458587646, -0.6061893105506897, -3.2712361812591553, 0.34974196553230286, 0.40698006749153137, 0.03786930814385414, -2.251610279083252]}, "layer0_Wgate": {"shape": [8, 16], "data": [0.31637874245643616, -1.0433416366577148, -1.1359249353408813, -0.34247684478759766, 0.06739402562379837, 0.8486857414245605, 0.5683228969573975, -1.3298912048339844, 0.7142927050590515, -1.099739909172058, -1.5091679096221924, -0.5144993662834167, 1.8599865436553955, -0.41024109721183777, 0.6935410499572754, 2.5349338054656982, -1.147755742073059, -0.4809090495109558, 0.13504688441753387, 0.12922225892543793, 0.0764714777469635, -0.4406115412712097, -0.7504931688308716, -0.49845877289772034, -3.8838589191436768, 0.8625612854957581, 0.8282419443130493, 0.28100600838661194, -0.02290879189968109, -0.06683862209320068, -0.5624117851257324, -0.34950968623161316, -2.078564167022705, -1.0726121664047241, 0.865867555141449, -0.7475302815437317, -0.2934514880180359, 0.23739543557167053, 1.2099051475524902, 0.5280485153198242, -1.1950937509536743, -0.006402131170034409, -0.40133917331695557, -0.46277090907096863, 0.4318047761917114, 0.9291051626205444, 0.3573945164680481, 1.2962074279785156, -1.4567759037017822, -0.9597282409667969, -0.8473222255706787, 1.8109970092773438, -0.025934290140867233, 1.0400551557540894, -1.917191982269287, 0.41470783948898315, 0.5794816613197327, 2.729290246963501, 0.6440029740333557, -0.9508855938911438, 0.8909944891929626, -0.9913038611412048, -0.36783891916275024, 0.18967045843601227, 0.02748609334230423, -0.1025792732834816, 0.23633648455142975, -0.7599186897277832, 0.03729362413287163, 1.5297527313232422, 0.37338101863861084, 0.624363362789154, -1.1296453475952148, 1.056419849395752, 0.6063952445983887, 2.0228891372680664, -0.6106661558151245, 1.6306027173995972, 0.5593926906585693, -0.8306326866149902, 0.8680522441864014, 0.8908858299255371, 2.1225712299346924, -0.7285390496253967, 0.7782206535339355, -0.12827783823013306, -0.14031314849853516, -0.5726147294044495, -1.0515364408493042, -0.4836497902870178, 1.2598317861557007, 0.052729979157447815, -1.0456502437591553, 1.0404276847839355, 0.007137466687709093, 0.3132566809654236, -0.6192122101783752, -0.20829756557941437, -0.9388293027877808, -1.0615848302841187, 0.9118595719337463, -0.09699457138776779, -0.6473366618156433, 0.7038465142250061, -0.3625236451625824, -1.2703016996383667, -1.6419756412506104, 1.6376019716262817, 0.2462141066789627, -0.4249057471752167, -0.5278804302215576, 0.6827334761619568, -1.1363896131515503, 0.2178575098514557, 0.04084812104701996, -1.5474454164505005, 0.6796070337295532, -2.129608154296875, 0.5092456340789795, -0.013512622565031052, -0.5175943970680237, -0.2544616162776947, -0.655929684638977, -0.23101146519184113, -1.4366023540496826, 0.1864161193370819, 0.3331797122955322, -1.0213521718978882]}, "layer0_Wup": {"shape": [8, 16], "data": [0.4720144271850586, -0.2846393883228302, -1.1182159185409546, 0.07204090803861618, -1.007659673690796, -0.1388399600982666, -0.5640312433242798, 0.733627200126648, -0.1311587244272232, -1.1291627883911133, -1.2350081205368042, -0.3286742568016052, 1.3389997482299805, -0.10127801448106766, 0.9203220009803772, 1.5198583602905273, 2.2332346439361572, 0.2862769067287445, 0.08687755465507507, -0.37008264660835266, 0.9539422392845154, 0.8031627535820007, 0.5642570853233337, 0.4867090582847595, 1.201779842376709, 0.012526034377515316, -0.6948273777961731, 1.296651840209961, -0.3766888380050659, -0.9775914549827576, 0.20365296304225922, 0.22836989164352417, 0.5586351156234741, 0.532350480556488, 1.9198739528656006, 1.0871692895889282, 1.578356146812439, 1.0352388620376587, -1.429803729057312, -0.4787804186344147, 0.14975856244564056, -0.10668213665485382, 1.1898564100265503, -0.043346188962459564, 1.1669206619262695, -0.5677731037139893, 0.4895838797092438, -0.19517117738723755, -0.9506025314331055, -1.7888084650039673, 1.164720058441162, -1.608566403388977, 0.8869295120239258, -0.32370734214782715, 0.04831903800368309, 1.9801702499389648, -0.37208300828933716, -1.8710557222366333, 0.0805315151810646, -0.40927568078041077, 0.5725118517875671, 2.093229293823242, 1.0964610576629639, -0.05812450125813484, -0.46953535079956055, -0.9295662641525269, 0.140379399061203, -0.5826802253723145, 1.9828314781188965, -0.4090328514575958, -0.34651586413383484, 0.13578645884990692, -0.2658025622367859, -1.1787728071212769, 0.5413772463798523, 0.9618787169456482, -0.7695430517196655, 0.049844685941934586, 0.8862594962120056, 1.391101360321045, -0.23350825905799866, 0.09728694707155228, -1.0023990869522095, 1.325764775276184, 1.5036810636520386, -0.22352278232574463, -0.7220733165740967, -0.7178016901016235, 0.21125569939613342, 0.3536035418510437, 0.5295218825340271, -0.0632568746805191, 1.1165724992752075, -0.4275650680065155, 1.0539076328277588, -0.9658901691436768, -0.018493926152586937, 0.6261438131332397, 0.008086878806352615, 0.16051460802555084, -1.4328168630599976, 0.27649247646331787, -2.0019962787628174, 0.44408637285232544, -1.4728305339813232, 0.7336797714233398, -0.9578642845153809, -1.3699626922607422, 0.3806706368923187, -0.02860824577510357, -0.9114892482757568, -1.1734408140182495, 1.1502232551574707, -0.3763658404350281, -0.5224425196647644, -1.8099935054779053, -0.9190617799758911, 0.2073185294866562, -0.2814271152019501, 0.7465171217918396, 0.4054723083972931, 1.2965573072433472, -1.2295188903808594, 1.4333871603012085, 1.2652174234390259, 0.6559635400772095, -1.2581106424331665, -1.4854854345321655]}, "layer0_Wdown": {"shape": [16, 8], "data": [1.5028088092803955, 0.060358092188835144, -0.38246479630470276, 0.5535117983818054, -2.1141533851623535, 0.202818363904953, -0.5191673040390015, -0.9334219098091125, 1.9720247983932495, -0.11702260375022888, 2.051657199859619, -0.19847604632377625, -0.6019006967544556, -1.3057955503463745, -1.1965999603271484, -0.6692515015602112, -0.9048130512237549, -0.0275725107640028, 0.13763149082660675, 0.44947439432144165, 1.7731198072433472, 1.2325024604797363, -1.6946040391921997, -0.7327017188072205, -0.6407069563865662, -0.5431792140007019, 0.5713170170783997, -0.3132014572620392, 2.0255887508392334, 1.3149428367614746, -1.6019890308380127, -0.8780578374862671, 1.1640375852584839, -1.181038498878479, -0.21674807369709015, -1.2195595502853394, -0.6113338470458984, -0.16290196776390076, 0.19532662630081177, -1.1575405597686768, 0.23426273465156555, 0.9175066351890564, 1.534855604171753, -0.18019624054431915, -0.3522731065750122, 1.5687384605407715, -0.10532110929489136, 2.1954102516174316, 0.7657617926597595, -0.5717676877975464, 0.34513211250305176, 0.8730778694152832, -0.5878326892852783, -0.21732838451862335, 0.3976829946041107, 0.40038320422172546, 1.0239150524139404, 0.21352368593215942, -1.1647578477859497, -0.7628543376922607, 1.3205944299697876, -0.5840024948120117, 0.032921332865953445, -0.34240928292274475, -0.4999901056289673, 0.34841611981391907, -0.9938372373580933, 1.4322333335876465, -0.13532213866710663, 1.3892165422439575, 3.5658366680145264, 1.5274362564086914, -1.0421624183654785, -0.9786112308502197, 1.1330875158309937, 1.4964097738265991, -0.33816492557525635, -1.2022706270217896, 1.8302640914916992, 1.2129149436950684, 0.8133826851844788, -0.10206099599599838, -0.07642081379890442, -0.19256703555583954, 1.9692896604537964, 0.23002579808235168, 0.8075799942016602, -0.3358985483646393, -0.5987442135810852, -0.6686202883720398, 1.4541332721710205, -0.06337626278400421, -0.7670395970344543, 0.07020826637744904, -0.434330552816391, -0.22446957230567932, -0.9107338786125183, 0.20574408769607544, -0.3124070167541504, -0.6219017505645752, -1.0275964736938477, 0.7836244702339172, -2.812440872192383, -0.5527811646461487, -1.2931104898452759, 0.5687671899795532, 1.0875617265701294, 0.02950315736234188, -1.2448779344558716, -0.6915004849433899, -1.5853990316390991, 1.0894606113433838, 1.1813334226608276, -0.15574580430984497, -1.1854475736618042, -0.5871085524559021, 2.759038209915161, -1.2517598867416382, -0.8530982732772827, -1.1479614973068237, 0.43775537610054016, 0.6062783002853394, -3.0707013607025146, -0.11983822286128998, 0.8744083046913147, -0.055565427988767624, -0.09388186037540436, -0.6018444895744324]}, "layer1_attn_norm": {"shape": [8], "data": [-2.0028722286224365, -0.7775787711143494, -0.7379680871963501, 1.9013875722885132, 0.771952211856842, 0.4339291453361511, 0.6493179798126221, 0.3739267885684967]}, "layer1_Wq": {"shape": [8, 8], "data": [-0.029093651100993156, -1.2849018573760986, -0.9122827649116516, 0.04550965502858162, 0.5753189325332642, -0.9268344640731812, -0.18270735442638397, 2.764984369277954, -1.6596190929412842, -0.9517325162887573, 0.16384102404117584, 0.39286643266677856, -2.3013336658477783, -0.21569359302520752, 1.8360857963562012, -1.1622710227966309, -1.2057108879089355, 0.7774151563644409, 1.688407301902771, -1.2354886531829834, -0.5355294346809387, 0.035929467529058456, -0.16664686799049377, -0.754234790802002, -0.4838947057723999, 0.07793326675891876, 1.075513482093811, 1.9916737079620361, -0.36549583077430725, 0.5241464376449585, -0.29968684911727905, 0.32356077432632446, -1.4675160646438599, -0.18535250425338745, 0.5803529024124146, -0.8081150650978088, 0.8818773627281189, -0.6299319863319397, -0.5450348854064941, -0.8943064212799072, 1.3768954277038574, -1.328640341758728, -1.3728110790252686, 0.2044607549905777, -0.9011536240577698, -0.03405770659446716, -0.27199822664260864, -0.8755428194999695, -1.5929663181304932, 0.4412666857242584, 0.008251149207353592, 0.28656089305877686, -1.6102371215820312, -1.1281366348266602, 1.8226064443588257, 1.192779779434204, 0.18892350792884827, 0.21034234762191772, -1.386956810951233, -0.3333190679550171, -1.2431626319885254, 0.7396833896636963, 1.4793624877929688, 0.9883036017417908]}, "layer1_Wk": {"shape": [8, 4], "data": [-0.7325659394264221, 2.1944475173950195, 0.5856416821479797, 0.6143720149993896, -1.9616882801055908, 1.6205660104751587, 0.865793764591217, -1.044773817062378, -0.4597654938697815, 0.8196739554405212, -0.23858416080474854, -0.3085586726665497, -0.8968062996864319, 0.1766129732131958, 0.5770900249481201, -1.757094144821167, 0.32378068566322327, -0.9082459807395935, -0.6480919718742371, -1.2407234907150269, -0.7509374022483826, 0.4646947681903839, -0.516903281211853, 0.6437670588493347, -1.3510833978652954, -0.07092329859733582, -1.1135233640670776, -1.8105636835098267, -0.13041312992572784, 1.1001237630844116, -0.5388330817222595, 0.018929021432995796]}, "layer1_Wv": {"shape": [8, 4], "data": [-1.189100980758667, -1.3460227251052856, 0.2955133020877838, -0.9119844436645508, 0.48873835802078247, 1.3194347620010376, -0.8928843140602112, 1.1918421983718872, -0.0623750314116478, -1.8215737342834473, 0.1201593205332756, 0.37158071994781494, -2.2792341709136963, 0.0730888843536377, -0.6963497996330261, -0.7480893135070801, -0.46953997015953064, 0.12100739777088165, -0.524384081363678, -0.747953474521637, 0.07117666304111481, -0.14772053062915802, 1.265602946281433, 0.4039638936519623, 0.9558754563331604, -0.11410581320524216, -0.48310190439224243, -1.4994347095489502, 0.6883237361907959, 0.9136624932289124, 0.7107880115509033, 0.666449248790741]}, "layer1_Wo": {"shape": [8, 8], "data": [1.4652886390686035, -1.1025514602661133, 0.648235559463501, 1.192305088043213, -0.7043723464012146, 1.7708163261413574, -0.9360314011573792, 0.037853457033634186, -1.278470516204834, -1.3937186002731323, -1.5789533853530884, -1.140455961227417, 0.02069755457341671, -0.854753315448761, -0.8660069704055786, -1.5365087985992432, -0.4274793863296509, -1.7165875434875488, -0.35060936212539673, -1.9666613340377808, -0.7569400668144226, 0.3010557293891907, -2.448786497116089, 0.06129296496510506, -1.3037892580032349, 0.04264640063047409, 2.0380196571350098, -0.09104922413825989, 1.3402520418167114, -0.43312665820121765, 0.11698901653289795, -1.4704713821411133, 0.1025184616446495, 0.4101581573486328, -0.684962809085846, 0.8962438106536865, -1.704259991645813, -0.47273796796798706, -1.884886384010315, -0.5537669062614441, 0.13860560953617096, 1.017897367477417, 0.18062914907932281, 2.015531539916992, -0.13624191284179688, 0.38683897256851196, 0.5400987267494202, -0.8028662800788879, -1.146921992301941, 0.3734011650085449, 0.485146164894104, 1.4425603151321411, 1.1770638227462769, 1.2145358324050903, -0.36012640595436096, -0.7889955043792725, -1.0453933477401733, -0.17475329339504242, -0.48232802748680115, -0.1708308607339859, -1.5455563068389893, 0.23392339050769806, -1.4265071153640747, -0.06376943737268448]}, "layer1_ffn_norm": {"shape": [8], "data": [0.9305955767631531, -1.9888916015625, 1.0836217403411865, -0.12453284114599228, 1.240939974784851, 0.26098430156707764, 0.373198002576828, 0.37974032759666443]}, "layer1_Wgate": {"shape": [8, 16], "data": [2.203012228012085, 1.5257880687713623, 1.1683076620101929, 1.038006067276001, 0.3754253089427948, -0.6325408816337585, 0.19624368846416473, -0.18580420315265656, -0.6428841352462769, -0.45257651805877686, 0.38413724303245544, 0.8871012926101685, 0.2867371439933777, 2.0581183433532715, -1.9945663213729858, 1.3204429149627686, 0.3318648040294647, 0.05360059812664986, -0.5567795634269714, -1.7520726919174194, -0.4590558409690857, -0.5472007393836975, 1.0020055770874023, -0.4075099527835846, 2.001687526702881, -0.4030676484107971, 0.517227828502655, 0.9137274622917175, -0.698158860206604, 0.09691765159368515, 0.4731820523738861, 2.1858246326446533, 0.795961320400238, 1.410139799118042, -0.18646225333213806, 0.21336960792541504, 0.04419077932834625, -0.1870637834072113, -0.4767392873764038, -1.5864490270614624, 0.08788452297449112, 0.6374408602714539, -0.29269692301750183, -1.5661507844924927, -1.1241967678070068, 1.1287086009979248, 1.2773089408874512, 0.7052405476570129, -0.9371285438537598, -0.7931281328201294, 0.335427850484848, 0.9622399210929871, -1.4076873064041138, 0.5881111025810242, 0.9348331093788147, -1.0265865325927734, 2.5494301319122314, 0.21166996657848358, 1.3157658576965332, 0.19099161028862, 0.05331625044345856, -0.5179721713066101, -0.4329015612602234, -1.517133355140686, -1.415945291519165, -1.4607768058776855, 0.17674681544303894, -0.6736387014389038, -1.353074312210083, 0.37598931789398193, 0.11277836561203003, -0.7137932777404785, 0.9692858457565308, -0.01118419598788023, 0.23324283957481384, -1.018879771232605, -0.7799530029296875, -0.39130961894989014, 0.7491888999938965, 0.25291118025779724, -2.0337066650390625, 1.9643782377243042, 0.5891571044921875, 0.8211873173713684, 0.4590246081352234, 0.667694091796875, 1.7955063581466675, -0.34807437658309937, 0.08058818429708481, -0.003212501062080264, -0.6602146029472351, 0.2135360836982727, -0.27258729934692383, -0.891697108745575, -1.2119534015655518, 0.3842495381832123, -1.3039647340774536, -1.1847823858261108, -0.740992546081543, -0.5632746815681458, 0.5375049114227295, 1.4342480897903442, 1.584457516670227, -0.674502968788147, 0.7190700769424438, -0.9946649670600891, -0.44489848613739014, 1.1818456649780273, -1.567400336265564, 1.364057183265686, 1.7530052661895752, 0.30573776364326477, -1.3777413368225098, -1.72404146194458, 0.7900457382202148, 1.864487648010254, -0.3264640271663666, -0.35518842935562134, -0.6627603769302368, 1.2029266357421875, -1.001159906387329, 0.6942761540412903, -0.5789111852645874, 0.25595271587371826, -0.40397247672080994, -0.20893333852291107, -1.161485195159912, 0.7989463210105896]}, "layer1_Wup": {"shape": [8, 16], "data": [-0.20720157027244568, -0.26321715116500854, -1.2965497970581055, -1.4409849643707275, 0.9322041273117065, 0.6859394311904907, 2.27968692779541, -0.3500870168209076, 0.9074194431304932, -0.46634137630462646, -0.939174473285675, 0.3075117766857147, -1.033774733543396, -2.350334644317627, -1.2494875192642212, -0.3330020308494568, 1.3001946210861206, -0.6094657182693481, -1.6424975395202637, 1.5091172456741333, 1.125656247138977, -1.1980584859848022, 0.7301238179206848, 1.3193753957748413, -0.9599306583404541, -0.11743214726448059, 0.7110852003097534, 0.039757952094078064, -1.1780483722686768, -0.5410104990005493, 0.21247565746307373, 0.827876627445221, 0.18964353203773499, -1.044997215270996, -0.17290346324443817, -0.6955446600914001, -0.5415134429931641, -0.6874434351921082, -2.01615571975708, -0.586635172367096, -0.24140921235084534, -1.3155843019485474, 0.43547293543815613, 0.6503678560256958, -0.022213710471987724, 0.42060011625289917, -2.193047285079956, 0.16505619883537292, -2.448577880859375, 0.464314341545105, -0.1250557154417038, -1.493032693862915, 0.9962179660797119, 2.032813549041748, -1.0519148111343384, -0.8918779492378235, 1.250876784324646, -0.30665719509124756, -0.11796308308839798, 0.28708475828170776, -0.6815086007118225, -0.4165858030319214, -0.8612530827522278, -0.11796190589666367, 0.44844427704811096, 0.6769335865974426, -0.20397306978702545, 0.11845721304416656, 0.773198127746582, 0.08987227827310562, 0.906172513961792, 0.6879637241363525, -0.3350469172000885, 1.4007331132888794, -0.886053740978241, 0.028806913644075394, -0.18698550760746002, -1.404631495475769, -1.9012818336486816, 0.1283004730939865, 1.4604434967041016, 0.2371911108493805, 0.49833425879478455, -0.3072216808795929, -1.9730587005615234, -0.35093364119529724, 1.054879903793335, 1.0453286170959473, -0.9639774560928345, -0.4654109477996826, 2.5439414978027344, 1.0638641119003296, -0.23754355311393738, -0.7317139506340027, -0.7688379883766174, -1.7741695642471313, 1.0903400182724, -0.7807967066764832, -0.6168811321258545, -1.0767743587493896, -0.7057523131370544, 1.3594263792037964, 0.8063541650772095, 0.5434055328369141, -0.9814340472221375, 0.781453013420105, -0.19359725713729858, -0.6205666065216064, 0.6915338039398193, -1.0066440105438232, 0.07705866545438766, -0.3081013262271881, 0.93393874168396, -0.9524420499801636, 0.3865374028682709, -1.4570093154907227, -1.4387370347976685, -0.6705567240715027, 0.018709620460867882, 0.1624663770198822, 0.8179382681846619, 1.417852759361267, 0.050109706819057465, 0.38273224234580994, 0.261875718832016, 0.8489266037940979, -1.654028296470642, -0.7816478610038757]}, "layer1_Wdown": {"shape": [16, 8], "data": [-0.4804286062717438, 0.1891363263130188, 1.2998751401901245, -0.49398067593574524, 1.2823807001113892, -1.502586841583252, 0.2766101658344269, 0.45571187138557434, -0.8556057214736938, -1.1024107933044434, 0.561664879322052, -0.09897085279226303, 0.09653642773628235, 0.27920815348625183, -0.7823546528816223, -1.0522174835205078, 0.25770214200019836, -0.8458341360092163, 0.20163008570671082, -0.2946549952030182, 1.9224718809127808, 1.1947054862976074, -2.0178301334381104, -1.3304171562194824, -1.8356823921203613, -0.30859243869781494, 0.22497257590293884, -0.37715229392051697, 0.5825560092926025, 1.5424628257751465, 2.1724860668182373, -0.7434964179992676, -0.5975149869918823, 0.2684888243675232, -0.243992879986763, 0.16613951325416565, -0.9067685008049011, -0.6527791023254395, 3.3020968437194824, -0.5034796595573425, 0.5510250329971313, 0.7668808698654175, -0.004282417707145214, -0.4514540433883667, 1.082422137260437, 0.19409315288066864, 1.5781854391098022, 0.000767725461628288, 0.7340783476829529, -0.8021733164787292, -1.1981475353240967, -0.9273349046707153, -0.029450947418808937, -1.0726709365844727, 1.3811143636703491, 1.4014383554458618, 0.24337820708751678, -1.6421194076538086, -2.127047300338745, 1.070910930633545, 0.6512870192527771, -0.4055062532424927, 1.6419183015823364, -0.47001007199287415, 1.3584285974502563, 0.22107402980327606, -1.8368167877197266, -0.47910282015800476, -2.2586264610290527, -0.7188628315925598, -0.034346457570791245, 0.08547309786081314, -0.31191951036453247, 0.652809202671051, 0.6258487105369568, -1.0056743621826172, 1.1744673252105713, 0.7399049401283264, 0.4484241306781769, -1.0409139394760132, 0.7259495258331299, -0.08773905783891678, -0.5854695439338684, 0.911848783493042, 0.9592389464378357, 0.6650644540786743, -1.141570806503296, -1.693372368812561, 1.0102742910385132, 1.2912358045578003, 0.3002055585384369, 0.42723706364631653, 1.2598369121551514, -1.6702244281768799, 0.1124727725982666, -0.17568032443523407, 0.20097818970680237, -0.2105998694896698, 0.7942750453948975, -1.3963463306427002, -0.07172717899084091, 1.3431599140167236, 0.26092585921287537, -0.3908495604991913, 0.9639579057693481, 0.5885893106460571, -0.44178396463394165, 1.0347881317138672, 0.579420804977417, -0.24942722916603088, -0.6390700340270996, -0.4461699426174164, -0.08561241626739502, 0.06833847612142563, 1.613341212272644, 1.5431450605392456, -1.221413016319275, -2.706904411315918, -0.7049057483673096, -0.5155946612358093, 0.9197569489479065, -0.01613141968846321, -1.2289154529571533, -0.11650188267230988, 0.29165518283843994, 1.026516079902649, -1.0536750555038452, -0.6024224758148193]}}, "expected": {"shape": [2, 5, 16], "data": [0.5993475914001465, -1.3122326135635376, -0.05541180074214935, 1.9344260692596436, -2.506028175354004, 2.230318069458008, 0.31485986709594727, -3.495164632797241, 2.063093423843384, -0.8967594504356384, -1.7175651788711548, -2.4251060485839844, 2.7665481567382812, -1.2736003398895264, -0.7831959128379822, 0.36450880765914917, 0.9176585078239441, -1.6552278995513916, -0.23479902744293213, 2.290774345397949, -2.7091336250305176, 2.2556264400482178, 0.4519697427749634, -3.5903656482696533, 1.8962668180465698, -1.0630213022232056, -1.7934958934783936, -1.7833423614501953, 3.1910979747772217, -1.2329472303390503, -0.9142160415649414, 0.3256983458995819, 0.9533703923225403, -1.6643539667129517, -0.18854829668998718, 2.348405361175537, -2.637505531311035, 2.2566752433776855, 0.439791202545166, -3.53562593460083, 1.7911779880523682, -1.1049227714538574, -1.8285765647888184, -1.8481658697128296, 3.079989194869995, -1.1741751432418823, -0.8939439058303833, 0.38831982016563416, -1.212979793548584, 1.755426049232483, -0.057058997452259064, -1.9926360845565796, -0.34017080068588257, 0.6712624430656433, -0.18126089870929718, -0.5338812470436096, 2.787020444869995, 1.7539327144622803, 0.17205248773097992, -3.095950126647949, 0.17539897561073303, -1.3344700336456299, -0.4652790129184723, -0.9742212891578674, 0.08011873811483383, -1.2200852632522583, -0.02138393558561802, 1.3785320520401, -2.8324391841888428, 2.593816041946411, 0.35765764117240906, -3.2573089599609375, 2.03566837310791, -0.622553825378418, -1.1445974111557007, -2.267064094543457, 2.8169665336608887, -1.6016238927841187, -0.8024355173110962, -0.06681016087532043, 0.040349043905735016, -0.9936985969543457, -0.3780093789100647, 1.3308061361312866, -2.0251312255859375, 1.3076413869857788, -0.26641589403152466, -1.886698842048645, 0.20206531882286072, -2.0253098011016846, -1.6201910972595215, -0.5499317646026611, -0.04618668183684349, -0.4179409444332123, 0.9564071297645569, 0.4513147175312042, 0.9993367195129395, -0.3597041070461273, -0.04733215644955635, 1.0348643064498901, -0.13028495013713837, 0.9921607375144958, -0.2670113742351532, 0.9632123112678528, -1.4914500713348389, -0.7348871231079102, -0.9783247113227844, 0.3146194815635681, -1.1790460348129272, 0.38271015882492065, 0.2682293951511383, -0.30404654145240784, 0.1615014374256134, -0.1072079986333847, 0.26246151328086853, 0.28223416209220886, -0.36150437593460083, 1.2676585912704468, -0.37776777148246765, 0.8645722270011902, -1.0053479671478271, -0.3453602194786072, -0.42828720808029175, -0.4510008990764618, -1.2389153242111206, 0.0002315660094609484, 0.32405731081962585, -0.46248817443847656, -0.41172733902931213, 3.3642737865448, 0.5847689509391785, -2.500399589538574, 3.497175693511963, -2.6719729900360107, -0.9333688020706177, 1.026796817779541, 3.044783353805542, 2.8866920471191406, -0.18189285695552826, -3.9683902263641357, -1.8346613645553589, 0.5111264586448669, -0.255403995513916, 0.23480485379695892, -0.8199712634086609, 0.9040528535842896, -0.07056507468223572, -1.3840532302856445, -0.43354693055152893, 0.09175371378660202, 0.39998382329940796, -1.4938498735427856, 3.016221046447754, 2.014327049255371, 0.9967606663703918, -1.152069330215454, 2.888282060623169, -1.4489437341690063, -1.3323720693588257, -0.9809719920158386]}}